digraph Tree {
node [shape=box] ;
0 [label="女性 <= 0.5\ngini = 0.451\nsamples = 984\nvalue = [646, 338]"] ;
1 [label="n年龄 <= 10.0\ngini = 0.279\nsamples = 638\nvalue = [531, 107]"] ;
0 -> 1 [labeldistance=2.5, labelangle=45, headlabel="True"] ;
2 [label="pclass=3rd <= 0.5\ngini = 0.36\nsamples = 17\nvalue = [4, 13]"] ;
1 -> 2 ;
3 [label="gini = 0.0\nsamples = 8\nvalue = [0, 8]"] ;
2 -> 3 ;
4 [label="n年龄 <= 3.5\ngini = 0.494\nsamples = 9\nvalue = [4, 5]"] ;
2 -> 4 ;
5 [label="n年龄 <= 0.583\ngini = 0.32\nsamples = 5\nvalue = [1, 4]"] ;
4 -> 5 ;
6 [label="gini = 0.0\nsamples = 1\nvalue = [1, 0]"] ;
5 -> 6 ;
7 [label="gini = 0.0\nsamples = 4\nvalue = [0, 4]"] ;
5 -> 7 ;
8 [label="n年龄 <= 7.5\ngini = 0.375\nsamples = 4\nvalue = [3, 1]"] ;
4 -> 8 ;
9 [label="gini = 0.0\nsamples = 2\nvalue = [2, 0]"] ;
8 -> 9 ;
10 [label="gini = 0.5\nsamples = 2\nvalue = [1, 1]"] ;
8 -> 10 ;
11 [label="pclass=1st <= 0.5\ngini = 0.257\nsamples = 621\nvalue = [527, 94]"] ;
1 -> 11 ;
12 [label="n年龄 <= 34.5\ngini = 0.186\nsamples = 490\nvalue = [439, 51]"] ;
11 -> 12 ;
13 [label="n年龄 <= 18.5\ngini = 0.196\nsamples = 444\nvalue = [395, 49]"] ;
12 -> 13 ;
14 [label="gini = 0.0\nsamples = 15\nvalue = [15, 0]"] ;
13 -> 14 ;
15 [label="n年龄 <= 31.597\ngini = 0.202\nsamples = 429\nvalue = [380, 49]"] ;
13 -> 15 ;
16 [label="n年龄 <= 20.5\ngini = 0.196\nsamples = 409\nvalue = [364, 45]"] ;
15 -> 16 ;
17 [label="pclass=3rd <= 0.5\ngini = 0.308\nsamples = 21\nvalue = [17, 4]"] ;
16 -> 17 ;
18 [label="n年龄 <= 19.5\ngini = 0.408\nsamples = 7\nvalue = [5, 2]"] ;
17 -> 18 ;
19 [label="gini = 0.444\nsamples = 3\nvalue = [2, 1]"] ;
18 -> 19 ;
20 [label="gini = 0.375\nsamples = 4\nvalue = [3, 1]"] ;
18 -> 20 ;
21 [label="n年龄 <= 19.5\ngini = 0.245\nsamples = 14\nvalue = [12, 2]"] ;
17 -> 21 ;
22 [label="gini = 0.278\nsamples = 6\nvalue = [5, 1]"] ;
21 -> 22 ;
23 [label="gini = 0.219\nsamples = 8\nvalue = [7, 1]"] ;
21 -> 23 ;
24 [label="pclass=2nd <= 0.5\ngini = 0.189\nsamples = 388\nvalue = [347, 41]"] ;
16 -> 24 ;
25 [label="n年龄 <= 28.5\ngini = 0.2\nsamples = 311\nvalue = [276, 35]"] ;
24 -> 25 ;
26 [label="n年龄 <= 25.5\ngini = 0.149\nsamples = 37\nvalue = [34, 3]"] ;
25 -> 26 ;
27 [label="gini = 0.211\nsamples = 25\nvalue = [22, 3]"] ;
26 -> 27 ;
28 [label="gini = 0.0\nsamples = 12\nvalue = [12, 0]"] ;
26 -> 28 ;
29 [label="n年龄 <= 30.5\ngini = 0.206\nsamples = 274\nvalue = [242, 32]"] ;
25 -> 29 ;
30 [label="gini = 0.408\nsamples = 7\nvalue = [5, 2]"] ;
29 -> 30 ;
31 [label="gini = 0.199\nsamples = 267\nvalue = [237, 30]"] ;
29 -> 31 ;
32 [label="n年龄 <= 23.5\ngini = 0.144\nsamples = 77\nvalue = [71, 6]"] ;
24 -> 32 ;
33 [label="gini = 0.0\nsamples = 11\nvalue = [11, 0]"] ;
32 -> 33 ;
34 [label="n年龄 <= 24.5\ngini = 0.165\nsamples = 66\nvalue = [60, 6]"] ;
32 -> 34 ;
35 [label="gini = 0.444\nsamples = 3\nvalue = [2, 1]"] ;
34 -> 35 ;
36 [label="gini = 0.146\nsamples = 63\nvalue = [58, 5]"] ;
34 -> 36 ;
37 [label="pclass=2nd <= 0.5\ngini = 0.32\nsamples = 20\nvalue = [16, 4]"] ;
15 -> 37 ;
38 [label="n年龄 <= 32.5\ngini = 0.18\nsamples = 10\nvalue = [9, 1]"] ;
37 -> 38 ;
39 [label="gini = 0.278\nsamples = 6\nvalue = [5, 1]"] ;
38 -> 39 ;
40 [label="gini = 0.0\nsamples = 4\nvalue = [4, 0]"] ;
38 -> 40 ;
41 [label="n年龄 <= 33.0\ngini = 0.42\nsamples = 10\nvalue = [7, 3]"] ;
37 -> 41 ;
42 [label="gini = 0.48\nsamples = 5\nvalue = [3, 2]"] ;
41 -> 42 ;
43 [label="gini = 0.32\nsamples = 5\nvalue = [4, 1]"] ;
41 -> 43 ;
44 [label="n年龄 <= 40.5\ngini = 0.083\nsamples = 46\nvalue = [44, 2]"] ;
12 -> 44 ;
45 [label="gini = 0.0\nsamples = 20\nvalue = [20, 0]"] ;
44 -> 45 ;
46 [label="n年龄 <= 41.5\ngini = 0.142\nsamples = 26\nvalue = [24, 2]"] ;
44 -> 46 ;
47 [label="pclass=2nd <= 0.5\ngini = 0.375\nsamples = 4\nvalue = [3, 1]"] ;
46 -> 47 ;
48 [label="gini = 0.0\nsamples = 2\nvalue = [2, 0]"] ;
47 -> 48 ;
49 [label="gini = 0.5\nsamples = 2\nvalue = [1, 1]"] ;
47 -> 49 ;
50 [label="pclass=2nd <= 0.5\ngini = 0.087\nsamples = 22\nvalue = [21, 1]"] ;
46 -> 50 ;
51 [label="n年龄 <= 44.5\ngini = 0.245\nsamples = 7\nvalue = [6, 1]"] ;
50 -> 51 ;
52 [label="gini = 0.0\nsamples = 4\nvalue = [4, 0]"] ;
51 -> 52 ;
53 [label="n年龄 <= 46.0\ngini = 0.444\nsamples = 3\nvalue = [2, 1]"] ;
51 -> 53 ;
54 [label="gini = 0.5\nsamples = 2\nvalue = [1, 1]"] ;
53 -> 54 ;
55 [label="gini = 0.0\nsamples = 1\nvalue = [1, 0]"] ;
53 -> 55 ;
56 [label="gini = 0.0\nsamples = 15\nvalue = [15, 0]"] ;
50 -> 56 ;
57 [label="n年龄 <= 27.5\ngini = 0.441\nsamples = 131\nvalue = [88, 43]"] ;
11 -> 57 ;
58 [label="n年龄 <= 17.5\ngini = 0.48\nsamples = 15\nvalue = [6, 9]"] ;
57 -> 58 ;
59 [label="gini = 0.0\nsamples = 2\nvalue = [0, 2]"] ;
58 -> 59 ;
60 [label="n年龄 <= 22.0\ngini = 0.497\nsamples = 13\nvalue = [6, 7]"] ;
58 -> 60 ;
61 [label="gini = 0.0\nsamples = 2\nvalue = [2, 0]"] ;
60 -> 61 ;
62 [label="n年龄 <= 23.5\ngini = 0.463\nsamples = 11\nvalue = [4, 7]"] ;
60 -> 62 ;
63 [label="gini = 0.0\nsamples = 1\nvalue = [0, 1]"] ;
62 -> 63 ;
64 [label="n年龄 <= 24.5\ngini = 0.48\nsamples = 10\nvalue = [4, 6]"] ;
62 -> 64 ;
65 [label="gini = 0.444\nsamples = 3\nvalue = [2, 1]"] ;
64 -> 65 ;
66 [label="n年龄 <= 26.5\ngini = 0.408\nsamples = 7\nvalue = [2, 5]"] ;
64 -> 66 ;
67 [label="gini = 0.0\nsamples = 3\nvalue = [0, 3]"] ;
66 -> 67 ;
68 [label="gini = 0.5\nsamples = 4\nvalue = [2, 2]"] ;
66 -> 68 ;
69 [label="n年龄 <= 60.5\ngini = 0.414\nsamples = 116\nvalue = [82, 34]"] ;
57 -> 69 ;
70 [label="n年龄 <= 59.0\ngini = 0.434\nsamples = 107\nvalue = [73, 34]"] ;
69 -> 70 ;
71 [label="n年龄 <= 54.5\ngini = 0.429\nsamples = 106\nvalue = [73, 33]"] ;
70 -> 71 ;
72 [label="n年龄 <= 47.5\ngini = 0.44\nsamples = 98\nvalue = [66, 32]"] ;
71 -> 72 ;
73 [label="n年龄 <= 45.5\ngini = 0.412\nsamples = 86\nvalue = [61, 25]"] ;
72 -> 73 ;
74 [label="n年龄 <= 30.5\ngini = 0.433\nsamples = 79\nvalue = [54, 25]"] ;
73 -> 74 ;
75 [label="gini = 0.0\nsamples = 2\nvalue = [2, 0]"] ;
74 -> 75 ;
76 [label="gini = 0.439\nsamples = 77\nvalue = [52, 25]"] ;
74 -> 76 ;
77 [label="gini = 0.0\nsamples = 7\nvalue = [7, 0]"] ;
73 -> 77 ;
78 [label="n年龄 <= 49.5\ngini = 0.486\nsamples = 12\nvalue = [5, 7]"] ;
72 -> 78 ;
79 [label="n年龄 <= 48.5\ngini = 0.278\nsamples = 6\nvalue = [1, 5]"] ;
78 -> 79 ;
80 [label="gini = 0.0\nsamples = 2\nvalue = [0, 2]"] ;
79 -> 80 ;
81 [label="gini = 0.375\nsamples = 4\nvalue = [1, 3]"] ;
79 -> 81 ;
82 [label="n年龄 <= 51.0\ngini = 0.444\nsamples = 6\nvalue = [4, 2]"] ;
78 -> 82 ;
83 [label="gini = 0.0\nsamples = 2\nvalue = [2, 0]"] ;
82 -> 83 ;
84 [label="gini = 0.5\nsamples = 4\nvalue = [2, 2]"] ;
82 -> 84 ;
85 [label="n年龄 <= 56.5\ngini = 0.219\nsamples = 8\nvalue = [7, 1]"] ;
71 -> 85 ;
86 [label="n年龄 <= 55.5\ngini = 0.32\nsamples = 5\nvalue = [4, 1]"] ;
85 -> 86 ;
87 [label="gini = 0.0\nsamples = 2\nvalue = [2, 0]"] ;
86 -> 87 ;
88 [label="gini = 0.444\nsamples = 3\nvalue = [2, 1]"] ;
86 -> 88 ;
89 [label="gini = 0.0\nsamples = 3\nvalue = [3, 0]"] ;
85 -> 89 ;
90 [label="gini = 0.0\nsamples = 1\nvalue = [0, 1]"] ;
70 -> 90 ;
91 [label="gini = 0.0\nsamples = 9\nvalue = [9, 0]"] ;
69 -> 91 ;
92 [label="pclass=3rd <= 0.5\ngini = 0.444\nsamples = 346\nvalue = [115, 231]"] ;
0 -> 92 [labeldistance=2.5, labelangle=-45, headlabel="False"] ;
93 [label="pclass=1st <= 0.5\ngini = 0.166\nsamples = 186\nvalue = [17, 169]"] ;
92 -> 93 ;
94 [label="n年龄 <= 16.5\ngini = 0.245\nsamples = 77\nvalue = [11, 66]"] ;
93 -> 94 ;
95 [label="gini = 0.0\nsamples = 9\nvalue = [0, 9]"] ;
94 -> 95 ;
96 [label="n年龄 <= 30.5\ngini = 0.271\nsamples = 68\nvalue = [11, 57]"] ;
94 -> 96 ;
97 [label="n年龄 <= 29.5\ngini = 0.358\nsamples = 30\nvalue = [7, 23]"] ;
96 -> 97 ;
98 [label="n年龄 <= 27.5\ngini = 0.311\nsamples = 26\nvalue = [5, 21]"] ;
97 -> 98 ;
99 [label="n年龄 <= 21.5\ngini = 0.363\nsamples = 21\nvalue = [5, 16]"] ;
98 -> 99 ;
100 [label="n年龄 <= 18.5\ngini = 0.198\nsamples = 9\nvalue = [1, 8]"] ;
99 -> 100 ;
101 [label="gini = 0.444\nsamples = 3\nvalue = [1, 2]"] ;
100 -> 101 ;
102 [label="gini = 0.0\nsamples = 6\nvalue = [0, 6]"] ;
100 -> 102 ;
103 [label="n年龄 <= 22.5\ngini = 0.444\nsamples = 12\nvalue = [4, 8]"] ;
99 -> 103 ;
104 [label="gini = 0.444\nsamples = 3\nvalue = [2, 1]"] ;
103 -> 104 ;
105 [label="n年龄 <= 25.5\ngini = 0.346\nsamples = 9\nvalue = [2, 7]"] ;
103 -> 105 ;
106 [label="gini = 0.0\nsamples = 4\nvalue = [0, 4]"] ;
105 -> 106 ;
107 [label="gini = 0.48\nsamples = 5\nvalue = [2, 3]"] ;
105 -> 107 ;
108 [label="gini = 0.0\nsamples = 5\nvalue = [0, 5]"] ;
98 -> 108 ;
109 [label="gini = 0.5\nsamples = 4\nvalue = [2, 2]"] ;
97 -> 109 ;
110 [label="n年龄 <= 37.0\ngini = 0.188\nsamples = 38\nvalue = [4, 34]"] ;
96 -> 110 ;
111 [label="n年龄 <= 31.597\ngini = 0.133\nsamples = 28\nvalue = [2, 26]"] ;
110 -> 111 ;
112 [label="n年龄 <= 31.097\ngini = 0.208\nsamples = 17\nvalue = [2, 15]"] ;
111 -> 112 ;
113 [label="gini = 0.0\nsamples = 2\nvalue = [0, 2]"] ;
112 -> 113 ;
114 [label="gini = 0.231\nsamples = 15\nvalue = [2, 13]"] ;
112 -> 114 ;
115 [label="gini = 0.0\nsamples = 11\nvalue = [0, 11]"] ;
111 -> 115 ;
116 [label="n年龄 <= 39.0\ngini = 0.32\nsamples = 10\nvalue = [2, 8]"] ;
110 -> 116 ;
117 [label="gini = 0.0\nsamples = 1\nvalue = [1, 0]"] ;
116 -> 117 ;
118 [label="n年龄 <= 43.0\ngini = 0.198\nsamples = 9\nvalue = [1, 8]"] ;
116 -> 118 ;
119 [label="gini = 0.0\nsamples = 4\nvalue = [0, 4]"] ;
118 -> 119 ;
120 [label="n年龄 <= 44.5\ngini = 0.32\nsamples = 5\nvalue = [1, 4]"] ;
118 -> 120 ;
121 [label="gini = 0.0\nsamples = 1\nvalue = [1, 0]"] ;
120 -> 121 ;
122 [label="gini = 0.0\nsamples = 4\nvalue = [0, 4]"] ;
120 -> 122 ;
123 [label="n年龄 <= 8.0\ngini = 0.104\nsamples = 109\nvalue = [6, 103]"] ;
93 -> 123 ;
124 [label="gini = 0.0\nsamples = 1\nvalue = [1, 0]"] ;
123 -> 124 ;
125 [label="n年龄 <= 31.097\ngini = 0.088\nsamples = 108\nvalue = [5, 103]"] ;
123 -> 125 ;
126 [label="gini = 0.0\nsamples = 28\nvalue = [0, 28]"] ;
125 -> 126 ;
127 [label="n年龄 <= 32.097\ngini = 0.117\nsamples = 80\nvalue = [5, 75]"] ;
125 -> 127 ;
128 [label="gini = 0.213\nsamples = 33\nvalue = [4, 29]"] ;
127 -> 128 ;
129 [label="n年龄 <= 49.5\ngini = 0.042\nsamples = 47\nvalue = [1, 46]"] ;
127 -> 129 ;
130 [label="gini = 0.0\nsamples = 25\nvalue = [0, 25]"] ;
129 -> 130 ;
131 [label="n年龄 <= 50.5\ngini = 0.087\nsamples = 22\nvalue = [1, 21]"] ;
129 -> 131 ;
132 [label="gini = 0.375\nsamples = 4\nvalue = [1, 3]"] ;
131 -> 132 ;
133 [label="gini = 0.0\nsamples = 18\nvalue = [0, 18]"] ;
131 -> 133 ;
134 [label="n年龄 <= 5.5\ngini = 0.475\nsamples = 160\nvalue = [98, 62]"] ;
92 -> 134 ;
135 [label="gini = 0.0\nsamples = 4\nvalue = [0, 4]"] ;
134 -> 135 ;
136 [label="n年龄 <= 30.597\ngini = 0.467\nsamples = 156\nvalue = [98, 58]"] ;
134 -> 136 ;
137 [label="n年龄 <= 13.0\ngini = 0.499\nsamples = 23\nvalue = [11, 12]"] ;
136 -> 137 ;
138 [label="gini = 0.0\nsamples = 4\nvalue = [4, 0]"] ;
137 -> 138 ;
139 [label="n年龄 <= 29.0\ngini = 0.465\nsamples = 19\nvalue = [7, 12]"] ;
137 -> 139 ;
140 [label="n年龄 <= 26.0\ngini = 0.484\nsamples = 17\nvalue = [7, 10]"] ;
139 -> 140 ;
141 [label="n年龄 <= 15.5\ngini = 0.469\nsamples = 16\nvalue = [6, 10]"] ;
140 -> 141 ;
142 [label="gini = 0.0\nsamples = 1\nvalue = [0, 1]"] ;
141 -> 142 ;
143 [label="n年龄 <= 21.5\ngini = 0.48\nsamples = 15\nvalue = [6, 9]"] ;
141 -> 143 ;
144 [label="n年龄 <= 19.5\ngini = 0.494\nsamples = 9\nvalue = [4, 5]"] ;
143 -> 144 ;
145 [label="gini = 0.469\nsamples = 8\nvalue = [3, 5]"] ;
144 -> 145 ;
146 [label="gini = 0.0\nsamples = 1\nvalue = [1, 0]"] ;
144 -> 146 ;
147 [label="n年龄 <= 23.5\ngini = 0.444\nsamples = 6\nvalue = [2, 4]"] ;
143 -> 147 ;
148 [label="gini = 0.375\nsamples = 4\nvalue = [1, 3]"] ;
147 -> 148 ;
149 [label="gini = 0.5\nsamples = 2\nvalue = [1, 1]"] ;
147 -> 149 ;
150 [label="gini = 0.0\nsamples = 1\nvalue = [1, 0]"] ;
140 -> 150 ;
151 [label="gini = 0.0\nsamples = 2\nvalue = [0, 2]"] ;
139 -> 151 ;
152 [label="n年龄 <= 38.5\ngini = 0.452\nsamples = 133\nvalue = [87, 46]"] ;
136 -> 152 ;
153 [label="n年龄 <= 32.5\ngini = 0.458\nsamples = 127\nvalue = [82, 45]"] ;
152 -> 153 ;
154 [label="n年龄 <= 31.597\ngini = 0.444\nsamples = 120\nvalue = [80, 40]"] ;
153 -> 154 ;
155 [label="gini = 0.446\nsamples = 119\nvalue = [79, 40]"] ;
154 -> 155 ;
156 [label="gini = 0.0\nsamples = 1\nvalue = [1, 0]"] ;
154 -> 156 ;
157 [label="n年龄 <= 36.5\ngini = 0.408\nsamples = 7\nvalue = [2, 5]"] ;
153 -> 157 ;
158 [label="gini = 0.0\nsamples = 4\nvalue = [0, 4]"] ;
157 -> 158 ;
159 [label="n年龄 <= 37.5\ngini = 0.444\nsamples = 3\nvalue = [2, 1]"] ;
157 -> 159 ;
160 [label="gini = 0.0\nsamples = 1\nvalue = [1, 0]"] ;
159 -> 160 ;
161 [label="gini = 0.5\nsamples = 2\nvalue = [1, 1]"] ;
159 -> 161 ;
162 [label="n年龄 <= 44.0\ngini = 0.278\nsamples = 6\nvalue = [5, 1]"] ;
152 -> 162 ;
163 [label="gini = 0.0\nsamples = 3\nvalue = [3, 0]"] ;
162 -> 163 ;
164 [label="n年龄 <= 46.5\ngini = 0.444\nsamples = 3\nvalue = [2, 1]"] ;
162 -> 164 ;
165 [label="gini = 0.5\nsamples = 2\nvalue = [1, 1]"] ;
164 -> 165 ;
166 [label="gini = 0.0\nsamples = 1\nvalue = [1, 0]"] ;
164 -> 166 ;
}